nep4_zbl 2 Mg Zn 
zbl 1.25 2.5 0.7
cutoff 7 5 236 85
n_max 4 4
basis_size 12 12
l_max 4 2 0
ANN 40 0
 -1.9958507e-01
 -1.1702698e-04
  1.2792144e+00
  7.1402490e-01
 -4.4194260e-04
 -1.0471087e-03
  2.1704102e-06
 -6.7708478e-04
 -1.1917659e-03
  1.9482130e-04
 -4.4982942e-05
  1.4501679e-04
  6.8376263e-05
 -5.2891986e-04
  1.0879794e-04
 -3.2939739e-04
 -2.8768470e-04
 -7.7506813e-04
 -1.3344710e-04
 -1.9956515e-03
 -2.6802354e-05
 -2.1707258e-04
 -7.6782901e-04
  3.1187994e-04
 -4.6011462e-04
  3.5622114e-05
 -2.6207937e-05
  8.5251150e-04
  2.3232958e-04
  1.0851248e-03
 -6.0376662e-01
 -2.2143112e-03
 -5.6614145e-03
  8.3030587e-01
 -1.6109143e-01
 -1.8596098e-01
 -2.8821331e-01
 -1.3677320e-01
  1.1990031e-01
 -4.3037286e-04
 -2.0612197e-03
 -3.9238012e-01
  3.9249454e-02
  4.5042746e-03
 -1.9525361e-01
 -1.4129663e-02
 -2.4025899e-01
 -6.1055232e-02
  3.7906662e-02
 -1.0688485e-01
 -2.4899779e-02
 -2.4752317e-02
 -3.4195676e-02
  2.5371792e-02
 -1.4301216e-04
  1.4796811e-04
 -5.4413271e-05
  4.0099077e-02
  8.8973437e-03
  4.6065447e-04
  1.5810879e+00
 -2.0619307e-03
  1.2600088e-03
  9.9353455e-03
 -4.2861636e-04
 -4.8469788e-05
 -1.7119516e-02
 -1.1410797e-02
 -2.1193612e-03
  3.3569895e-04
 -1.8484253e-03
 -6.8793329e-04
  1.3005799e-04
  6.2360836e-05
  1.8379315e-03
 -1.3988251e-03
  5.7390810e-04
  1.9200143e-01
 -1.0894117e-05
 -2.2927461e-04
 -2.6834372e-04
 -3.5885009e-03
  4.9596711e-04
 -5.7549175e-04
  8.4087811e-04
 -4.7328850e-04
  1.6091481e-03
 -2.3671555e-04
 -6.0543930e-04
  5.1446655e-04
  4.0402478e-01
  1.8743220e-04
 -1.7097493e-04
 -4.3119538e-01
 -6.2122074e-04
 -1.7781708e-04
  2.5611200e-05
  4.5713321e-05
  3.8009810e-05
  2.8127732e-05
  8.1671329e-05
  2.7264885e-04
 -1.7855104e-05
  1.6287000e-04
 -2.5925678e-05
 -4.3924956e-04
 -1.4218822e-04
 -2.9542838e-04
  5.6395243e-04
  2.8274040e-04
  5.4429936e-05
  1.1930717e-04
 -7.7376171e-05
 -2.4196880e-04
 -4.0845345e-03
  2.2095934e-04
  7.3788903e-04
 -1.6180831e-05
 -1.6279898e-04
 -3.0037097e-04
 -4.5970139e-01
  3.4630363e-04
  9.7688157e-03
  1.2103617e+00
  2.2692265e-04
 -8.0991995e-05
 -1.9257140e-03
 -3.9112070e-03
  1.4542374e-01
 -2.0397114e-04
 -5.6267343e-04
 -8.1169363e-03
  4.2251762e-02
  6.8557493e-02
 -2.7804842e-02
 -1.8031236e-04
 -4.3514106e-04
 -3.9983355e-02
  2.0319023e-03
 -1.6219377e-03
 -2.4150300e-03
  8.0983424e-05
 -1.6306842e-03
  2.1811230e-02
 -1.7920219e-04
 -8.4422086e-04
 -2.3038576e-05
  4.2880402e-04
  6.3502992e-04
 -8.0105689e-05
  2.0247845e-01
  3.9842483e-04
  1.9640099e-04
 -1.6525882e-01
  2.3019227e-05
  3.0327446e-04
  2.1077400e-04
  5.5031205e-04
 -3.3898425e-05
 -1.8784811e-04
  6.0597889e-05
  4.4593042e-05
  7.8636641e-04
  1.5673021e-04
 -1.1251675e-04
  3.8520193e-05
  2.1759243e-04
  1.6227535e-03
 -2.8765280e-04
 -2.8845685e-04
 -9.8580851e-05
  2.5878138e-05
  3.8346127e-04
  4.5084282e-05
 -4.9925162e-05
  2.7413690e-04
 -1.7385227e-04
 -3.0285012e-04
 -2.0592236e-04
 -1.1346994e-04
 -2.0446274e+00
 -8.1256568e-04
  1.8429908e-04
  3.5971308e-01
  4.8735380e-04
 -1.4695873e-03
 -7.7141548e-04
  2.8910369e-04
  2.9934617e-04
  5.3499267e-04
 -2.5970637e-04
 -1.0025308e-03
 -1.6526050e-04
  2.3894083e-05
 -2.4455396e-04
 -4.4585890e-04
 -2.1200183e-04
 -8.1850932e-04
  3.6277331e-06
 -8.8383444e-05
 -8.0256810e-05
 -8.2389197e-05
 -1.1531590e-03
  1.6855085e-04
 -1.7408871e-04
 -3.4434477e-05
 -1.1196553e-04
 -6.8534617e-05
  1.5491033e-04
  3.7331719e-04
 -1.6113191e+00
  1.7857386e-04
 -6.5940432e-04
  1.4324954e-03
  1.0060594e-04
  8.3073401e-01
  2.4284574e-04
  7.5395382e-04
  2.8859351e-05
 -2.4904986e-04
 -8.4863522e-04
  1.6614307e-04
 -1.1575048e-04
 -1.4064992e-04
 -1.5605675e-04
 -2.6124131e-04
  1.4308321e-04
 -1.2689221e-04
  2.2932929e-04
 -2.4976250e-04
  1.4887960e-04
 -3.1912027e-04
 -1.3535017e-04
 -2.2253864e-04
  1.4168667e-04
  1.7386751e-04
  1.4949063e-04
 -1.2132037e-04
  1.7921174e-04
 -2.2552185e-05
 -1.6959572e+00
  3.8103979e-02
  8.9386880e-01
  3.2977688e-01
  1.1852709e-04
  8.0726802e-04
  3.8893229e-01
  3.2046742e-03
  1.9184282e-01
 -2.2749598e-03
  5.9288979e-04
  2.1995318e-03
  2.2849526e-01
  1.6076809e-05
  7.0062088e-05
  4.5139180e-04
 -1.0613292e-05
  7.3720717e-01
  1.6730773e-03
 -2.2159456e-04
  4.5893938e-04
 -1.3411649e-04
 -1.1580013e-04
  2.9756851e-04
  3.7608400e-04
 -8.7785139e-04
 -1.5126998e-03
 -3.6459434e-04
 -1.9444209e-04
 -4.1742541e-04
  1.0472272e-03
 -2.0934445e-05
 -5.9351494e-04
 -2.9384369e-02
  1.0357927e-04
  6.8664679e-04
 -5.0809712e-04
  6.9949985e-04
  4.8017617e-05
 -4.8741620e-04
  1.0946428e-04
 -3.6208922e-04
 -6.2229876e-05
 -8.3606341e-05
 -6.6185021e-05
  1.4476283e-05
  1.5919325e-04
  1.4436027e-04
  2.2684065e-04
 -1.9504473e-06
  6.4258039e-04
  2.7973333e-04
 -1.0408378e-04
 -2.4287550e-04
  9.2741783e-04
 -2.4596366e-04
  5.8038294e-04
  1.1151188e-05
  1.6084539e-04
 -3.1913328e-04
 -4.5260954e-01
  3.8084851e-04
 -1.0978876e-03
  4.1922358e-01
 -1.0756882e-04
  8.7310653e-04
 -2.1227585e-04
 -5.0789339e-04
  6.2166678e-04
 -4.3348127e-04
  5.8998785e-04
  3.6862952e-04
  4.7557860e-05
  1.0510278e-05
 -4.2651268e-04
  1.0117131e-03
  3.0028101e-04
 -3.6417355e-04
 -3.9663728e-04
  6.0727951e-05
 -1.0731537e-03
  2.3567374e-04
  1.2050850e-04
  4.0970273e-05
  4.7422777e-04
  1.3120788e-04
 -8.9511901e-05
  7.3125452e-04
  4.3259752e-05
  2.7688281e-04
 -8.8172078e-02
 -3.2097293e-04
 -8.8127395e-05
  7.2042626e-01
  1.1361622e-04
  1.7490076e-04
 -8.6805148e-06
 -2.7686078e-03
 -9.5435401e-04
  1.4434714e-04
 -1.5528941e-04
  1.5818134e-04
 -8.5883075e-04
 -1.6298634e-03
  3.4769131e-05
 -4.9645050e-06
  3.4810315e-04
  9.0308755e-04
 -3.6676225e-05
  2.0290685e-05
 -1.5090696e-04
 -8.2214421e-04
 -6.2390877e-04
  8.4992593e-05
  3.5595633e-05
 -3.0703252e-04
  2.8262136e-04
 -4.3519885e-05
  3.1469966e-04
  7.9958736e-05
  8.3108936e-03
  2.0369646e-04
  8.7995938e-04
 -1.8561722e-01
 -4.0981499e-04
  7.3764473e-05
 -8.9963301e-05
  4.9170107e-04
  5.8805250e-04
  3.2838085e-05
  2.0132466e-04
  5.0435931e-04
  3.6501378e-04
 -1.6799316e-04
  1.5914203e-04
 -1.2808117e-04
 -1.6602609e-04
  8.5699192e-04
  4.6556950e-05
  3.7601759e-04
  5.0516897e-05
 -4.8991671e-04
 -1.3916111e-04
  1.2744569e-04
 -2.4130035e-04
  1.1340182e-04
 -4.7902562e-04
  1.4289496e-04
  4.3859109e-05
 -6.8477658e-04
  5.2936299e-04
 -2.0004275e-04
  2.2684160e-04
 -2.9951386e-02
  4.0656677e-04
 -5.0246489e-04
  2.2538927e-05
 -7.8199041e-04
  1.2434769e-04
 -2.3203398e-04
  1.9066525e-04
 -1.6518442e-04
  3.0827468e-05
  1.4338232e-04
 -1.6782171e-04
 -5.9427828e-05
  4.3679515e-04
  2.0449856e-04
 -3.3263894e-04
 -7.6672613e-06
  6.8970711e-04
 -6.0097122e-04
  1.8603844e-04
  2.9806743e-04
  3.1588713e-04
  4.0311099e-04
  2.5163952e-04
 -3.2208776e-04
  6.5583881e-05
  5.0793774e-04
 -2.2368357e-01
  3.8813957e-04
 -2.6113823e-01
 -2.6077187e+00
  1.0164118e-03
 -1.4899354e-05
  2.5653632e-04
  1.0525443e-03
 -7.0167902e-05
  1.7812663e-04
  1.0974915e-05
  3.8315836e-04
  9.1847370e-04
 -1.2014377e-05
 -5.5810064e-04
  3.0069120e-04
 -7.1315386e-05
  3.1074902e-04
  8.8852830e-05
  6.6949159e-04
  2.1917994e-04
  4.5150289e-05
 -5.4614118e-04
  2.3636140e-04
  3.2970016e-05
 -2.8167994e-04
 -2.2892363e-04
 -1.9965682e-04
 -1.0655695e-03
 -2.8407577e-04
 -5.2552438e-01
  2.6407069e-01
 -6.7054131e-04
  1.4397774e+00
 -4.2537326e-04
 -2.9557833e-01
 -1.4473542e-04
 -1.4459263e-03
  5.8220959e-01
  2.6242414e-02
 -5.3678159e-05
 -2.1568309e-01
  1.7676774e-01
  4.4960738e-03
 -2.5404814e-01
 -1.6483137e-01
 -1.2093507e-01
 -2.3388232e-01
  2.9105958e-01
 -1.5508811e-01
 -4.6380648e-01
 -2.8997485e-03
 -4.7821403e-02
  3.0720884e-03
  1.1237101e-03
 -3.1370370e-04
  1.3026113e-04
  1.6939566e-01
  4.9524089e-05
  4.2813263e-04
  3.3964774e-01
  3.2517029e-04
 -5.1707157e-05
 -2.9531872e-01
  3.1712346e-04
 -1.7470164e-05
  7.5084320e-04
  9.5552241e-05
 -2.2296005e-04
 -3.4062142e-04
 -2.4194978e-04
  5.2760355e-05
 -1.0091422e-04
 -4.0660405e-05
 -2.8288912e-04
 -1.6790601e-04
 -5.7209877e-04
 -4.5338061e-04
  8.2993758e-04
  4.2255176e-04
  1.5285818e-04
  1.8736000e-04
  2.7297324e-04
  4.2252601e-04
  4.3149586e-04
  1.3329994e-04
  6.7914673e-04
  3.8993842e-04
 -4.1860025e-04
 -1.4072852e-04
  5.8234178e-02
 -1.3144547e-04
  1.1724278e-01
 -7.6555574e-01
  3.6761245e-05
 -7.0957518e-05
  1.2109861e-02
 -2.1278884e-05
  1.0032815e-05
  8.3369865e-05
  1.2398290e-04
 -8.9710846e-04
  7.1432412e-05
  9.0452639e-05
 -9.8279752e-06
  4.9459608e-04
  9.6284563e-04
  2.5321054e-04
  1.6492780e-03
 -1.5529025e-05
  1.7420955e-03
  9.4271352e-05
 -5.2527073e-05
  1.5101925e-04
  6.1487610e-04
  1.3650843e-05
 -2.0313208e-04
 -2.6687945e-04
  4.0536455e-05
  8.8030509e-05
  7.7782005e-01
 -2.5387862e-01
 -8.6248601e-03
  9.4192129e-01
 -8.8274360e-02
 -1.7936026e-01
 -6.2044686e-01
 -5.5454563e-02
  6.6349640e-02
  5.4731291e-02
 -3.7555575e-02
 -4.3419740e-01
  3.4593400e-02
  5.3899188e-02
 -5.1653825e-02
 -1.3363355e-01
 -1.5101440e-01
 -1.1287323e-01
  1.5243695e-02
 -2.9442981e-01
 -2.8419417e-01
 -2.0712215e-01
 -7.7088678e-04
  7.1819997e-03
  4.8688072e-04
 -6.1986828e-04
  2.8616346e-03
  4.7384236e-02
  1.6378126e-01
  7.6389186e-02
  7.3244018e-03
 -4.6577779e-04
 -4.0405482e-04
 -7.5313389e-02
  2.5793377e-04
  1.3218679e-04
 -1.1893317e-04
 -6.5052809e-05
  8.5557363e-04
 -4.1958241e-04
  1.9196041e-04
 -3.1187516e-05
 -1.3457562e-03
  2.4138516e-04
 -4.1325889e-05
 -1.3779382e-04
 -4.3060540e-04
  2.7445969e-04
 -3.2277737e-04
 -2.8156769e-04
  1.7875811e-03
  3.3041605e-04
 -3.4336223e-05
 -3.3464402e-04
  3.0168638e-04
 -2.2442789e-04
  1.8943113e-04
 -6.7602414e-05
 -4.2079345e-04
  5.9780275e-04
  3.8345404e-02
  3.0949817e-04
  1.1381582e-04
 -3.5222557e-01
 -4.0404723e-04
  1.0165127e-03
  7.7220512e-04
  5.4078962e-04
  2.2507516e-05
 -3.6124987e-04
 -5.4887143e-05
 -3.3481439e-04
  2.8641123e-04
  6.7046308e-04
 -2.1429323e-03
  2.3723203e-04
 -9.4406183e-05
 -7.6524419e-05
 -6.2572479e-04
 -1.9999713e-04
 -1.0308362e-04
 -7.7431131e-04
  3.6261312e-04
  9.0887668e-03
  6.2159109e-03
  8.8849739e-04
  1.2264594e-04
 -7.6066717e-05
  1.0308202e-07
  5.7226109e-05
 -2.7929869e-01
  1.2919720e-05
 -1.2734434e-01
  3.9013405e+00
  2.8422373e-05
  7.1856135e-05
  4.6432274e-06
 -1.9973421e-03
 -1.6577162e-02
 -5.1457633e-04
 -1.0962554e-03
 -5.9010999e-05
 -5.8643124e-03
 -2.3808422e-04
 -4.0087365e-05
 -3.8348048e-04
  2.7093891e-04
  7.4175833e-04
 -2.1331391e-04
 -2.8061599e-04
  2.3539625e-04
  3.0024795e-04
  1.1828678e-03
 -7.3690228e-02
 -7.0860237e-04
 -5.0130993e-04
  8.1977999e-04
  3.0527191e-04
  3.6104347e-04
  8.9208159e-04
  7.9304713e-01
 -1.3321532e+00
 -8.2360911e-01
 -1.3993181e+00
 -3.8565806e-01
 -3.8235897e-01
 -7.9368961e-01
 -7.9766816e-01
 -1.7123443e+00
 -2.0243353e-04
 -7.8172898e-01
 -4.2856517e-01
 -8.7133634e-01
 -5.7328206e-01
  4.5288333e-01
 -5.5361634e-01
 -4.3673109e-02
 -1.0786289e-05
 -9.5145094e-01
 -1.0082800e-01
 -6.7477733e-02
 -2.7330577e-02
  2.9968381e-02
 -7.7309489e-01
 -3.1143728e-01
 -8.3359238e-04
  1.5545739e-03
 -3.2660602e-05
  2.7994835e-04
  6.5391177e-05
 -9.1190093e-05
 -2.2821447e-04
 -4.3589230e-06
  4.8469185e-04
 -1.1155105e-04
 -2.6238465e-04
  2.3371288e-04
 -4.9115159e-04
  8.3850318e-05
  4.0483684e-04
  5.5609306e-04
  8.5034349e-04
  4.3258662e-04
 -7.6147780e-04
 -3.2569680e-04
  1.3107373e-03
 -6.0319882e-05
 -2.0551841e-05
  9.3724790e-05
  7.6191187e-05
  3.2163499e-04
  6.4753272e-06
  5.0369458e-04
  5.5796053e-04
 -1.0905477e-04
 -1.1598269e-04
  2.2639452e-04
  8.1636070e-05
 -7.8361831e-04
  8.8267867e-04
 -7.4096367e-02
 -3.9073348e-04
 -8.5406842e-05
  2.5334144e-01
 -1.0314153e-04
 -9.8421981e-05
 -2.3294987e-04
 -1.6803657e-04
 -4.6948971e-05
 -1.6938381e-04
 -9.6398297e-05
 -5.2571835e-05
  1.2629523e-04
  1.9850981e-04
  1.4741653e-04
 -3.7367834e-04
 -2.2787477e-03
  2.2449683e-04
  8.6478627e-04
  1.3046412e-04
  1.1945681e-04
  1.4778040e-05
  5.7732908e-04
  2.2536522e-04
  2.8965645e-04
 -1.8496442e-04
  3.7781737e-04
 -4.6879004e-04
  2.0322502e-04
  5.0507172e-04
 -1.5609065e-01
 -6.1439459e-05
  7.7989430e-04
  7.6471454e-01
 -5.0683579e-05
 -1.2627676e-04
 -1.9133816e-04
 -7.2836658e-05
 -1.2756519e-03
  6.7765686e-06
 -6.5329479e-04
  1.1538009e-04
 -3.1694814e-03
  2.7262649e-04
  9.4491996e-05
 -4.9398845e-04
  2.8880997e-04
  9.6019277e-05
 -1.5364481e-04
  3.2284626e-04
 -2.4831409e-04
  4.7352140e-05
  3.6242116e-05
 -9.5255364e-04
  1.4463448e-04
 -8.2883103e-05
 -1.3284195e-05
 -8.9997379e-04
  3.4763329e-04
 -2.1164598e-05
 -4.8584089e-01
 -1.9188071e+00
 -1.3621094e+00
  1.0813527e+00
 -2.2568493e-01
 -2.7131048e-01
 -5.9045395e-03
 -1.8593487e-01
  1.1917594e-01
  1.5977931e-01
 -4.3690264e-01
 -5.6525159e-01
 -2.4521524e-02
 -1.1851195e-01
 -6.8289965e-01
 -6.0129172e-01
 -1.8998779e-01
 -2.7847185e-04
 -2.1912815e-01
 -4.5486093e-01
 -1.2958972e+00
 -9.5305458e-02
 -3.7568736e-01
 -1.5589364e-01
 -4.4871605e-05
  3.6177142e-05
  1.8120503e-04
  1.9152498e-05
  1.4059345e-04
  3.2276642e-02
  2.6601081e+00
 -1.9159675e-02
 -1.1119698e-04
  3.6253996e-02
 -2.2129730e-04
 -1.9215811e-03
 -5.4885590e-01
 -4.0925662e-03
  3.3563195e-04
  3.7435662e-02
 -1.8975893e-02
 -5.3745616e-02
 -8.7051629e-04
 -1.0560240e-03
  3.8043693e-01
 -2.2344466e-03
  3.4766116e-03
  6.7274082e-01
 -1.1904050e-03
  4.4382420e-01
 -1.0748911e-03
 -2.3745127e-01
  1.0630921e-01
 -8.2541746e-04
  1.0340769e-02
 -2.3494622e-04
  1.1674659e-03
  2.2491235e-04
 -9.6512673e-04
  4.0314216e-04
 -1.4838914e-04
  5.6748053e-05
  9.7832642e-04
  7.0356846e-02
 -4.9823771e-05
 -2.4172998e-04
 -1.1630516e-04
  1.7061984e-04
  1.7513556e-04
  3.9377403e-05
 -3.4255907e-04
  1.8320986e-04
  8.6701570e-05
 -6.2611257e-04
  4.8418235e-04
  1.3496955e-03
 -9.2279384e-05
  1.1712087e-04
  4.9861032e-04
 -1.8005635e-04
 -8.4310441e-06
  2.4196546e-04
  1.1755250e-04
 -2.4023262e-05
  1.5035184e-04
 -7.0539296e-05
 -4.7741327e-04
 -5.9159315e-04
  1.4536658e-04
 -1.9989510e-04
 -5.0818282e-01
  9.1547467e-05
 -9.1428337e-05
 -2.0744108e-02
 -2.9107017e-04
  5.3953967e-04
 -1.5709156e-05
  1.1044717e-05
 -4.3172087e-04
 -3.4909544e-04
 -5.5312044e-05
 -2.4782930e-04
  1.5674770e-05
 -4.6913032e-04
 -4.7243887e-04
  3.9478191e-04
  1.5862635e-04
 -5.9545881e-05
  7.6163554e-04
  5.9914152e-04
  8.8145811e-05
  6.5437658e-04
 -9.2593493e-04
 -1.5494241e-05
  1.1708736e-03
  4.8867642e-04
 -4.8420441e-04
 -6.2966119e-06
 -2.3994953e-04
 -3.9038956e-04
  8.2711756e-01
  4.7878572e-04
 -5.9814204e-04
 -8.5123879e-01
 -1.9130112e-04
  6.9005238e-03
  2.7151348e-04
  4.2036217e-02
 -5.8121406e-02
 -7.5991341e-04
  2.0198342e-04
  2.7067044e-01
 -4.7236984e-03
 -1.1446920e-03
  4.2463187e-02
  2.5158909e-03
  3.6930458e-05
  4.1410223e-02
 -1.6151910e-04
  2.4911653e-02
  3.8224400e-03
  3.3034667e-04
  1.5021225e-04
 -1.8354318e-05
  1.0890606e-03
 -2.6580828e-04
  4.7497358e-04
 -1.3431365e-03
 -1.2459558e-03
 -3.8020287e-04
 -8.5339999e-01
 -5.0616416e-04
 -4.1955098e-04
  3.5880417e-01
 -5.3848882e-05
 -6.1987208e-05
 -8.6354523e-04
 -9.5505267e-05
  9.2466515e-05
 -7.8803023e-05
 -6.0280017e-04
  3.0501551e-04
 -9.1438676e-05
 -3.9566730e-04
 -3.4393056e-06
 -3.4577493e-04
  6.8298861e-04
 -2.9826717e-04
 -3.6254895e-04
 -3.6067565e-04
 -7.0404843e-04
 -2.4771929e-04
  4.6060658e-03
 -4.7862655e-04
  1.3199846e-04
 -2.6650838e-05
 -1.8126341e-04
  1.9037917e-04
 -1.1097741e-03
  8.8732464e-05
 -1.2354153e-01
 -3.6053307e-04
  1.3926171e-03
  3.8019425e-01
 -6.9006253e-04
 -5.4025755e-04
 -2.3064833e-02
 -1.0468765e-01
 -3.6005938e-04
  2.7823920e-04
 -1.6643378e-03
 -3.2725363e-04
  3.4553377e-05
  1.9609426e-04
 -3.2856630e-03
 -3.2333002e-04
 -1.4110286e-03
 -4.8558945e-03
 -4.4642646e-05
 -1.8293719e-04
 -1.1204175e-04
 -4.4623177e-04
 -3.8445371e-05
  8.6263071e-06
 -1.6544994e-04
 -2.7548455e-04
 -6.6029948e-05
  9.7953125e-05
  5.9659169e-06
  5.4654829e-05
  8.5384422e-04
  1.4207215e-04
 -6.3508196e-05
 -1.6563351e-01
  5.1557826e-04
 -3.4092812e-04
  1.2541753e-04
 -2.2647392e-04
 -1.9174922e-04
 -9.3593226e-05
  2.4370317e-04
 -2.0257756e-04
 -6.2918960e-04
  1.1115263e-04
  3.6107094e-04
  4.2578139e-04
  1.4107484e-04
 -1.4251259e-03
  9.6083997e-05
  1.2507605e-04
 -1.8694687e-04
 -1.4630133e-04
  5.0463510e-04
 -1.1296584e-04
 -1.8659876e-04
  6.2072650e-05
 -6.1438906e-05
 -1.7651056e-03
  3.7882189e-04
  9.4256120e-06
 -1.4953660e+00
 -4.6238813e-01
  4.8020196e-01
  7.5894904e-01
 -1.5027750e-01
 -4.2465899e-02
 -1.0485246e-01
 -4.6426424e-01
  3.9765906e-02
 -5.7701173e-04
  2.8915229e-04
 -4.5784420e-01
  1.1975743e-01
  6.9329859e-04
 -2.9831814e-02
 -3.7692275e-03
 -1.1634348e-01
 -7.3910244e-02
 -1.7223944e-04
 -1.3656582e-01
 -1.9307424e-04
 -1.3978949e-03
 -6.8976311e-03
  7.2630704e-04
  2.8659447e-04
  1.0257153e-03
 -3.9553022e-05
  1.3833679e-04
  2.0622704e-04
  7.2559080e-04
  9.0838214e-05
  1.2551305e-03
  1.3635133e-04
  1.0302673e-03
  8.2835730e-04
 -4.7173403e-04
 -1.7139413e-04
 -2.8162348e-04
 -4.0189928e-04
  3.1523914e-06
  9.7772143e-05
  3.5611208e-04
  9.1840899e-05
  6.9745387e-05
  5.5073895e-05
 -2.1275265e-04
  2.4236325e-04
 -4.3396090e-04
  1.6292983e-04
 -2.8467168e-05
  7.3098275e-04
  5.1783520e-04
 -3.4487815e-04
  1.0814097e-04
 -1.2357214e-03
 -2.5874836e-04
 -1.0232297e-04
  3.3676502e-04
 -2.2452022e-04
  4.8053739e-04
  2.6968217e-02
 -8.1062484e-05
 -8.6863776e-04
 -1.1316159e-01
 -3.8899944e-04
  6.8978808e-04
 -3.8350729e-04
  3.8316328e-04
 -8.2241022e-04
  6.6867756e-04
  3.8051454e-04
  2.4031300e-05
  8.5304302e-05
 -6.4504282e-05
  1.4801697e-04
 -7.2465955e-05
 -1.0010304e-04
 -2.1223554e-04
  2.5694515e-04
  1.4304175e-04
 -2.1565169e-04
  1.7301552e-04
  8.6702046e-04
  5.4230390e-04
 -4.0485410e-04
  1.5303526e-04
  1.7548727e-03
 -3.8916679e-04
  1.3202315e-04
 -2.8056800e-04
  1.3686664e+00
  1.3617495e-04
 -8.3916639e-05
 -2.0412305e-01
  1.5401867e-05
  4.5212806e-04
  1.6236734e-03
 -3.1427087e-05
 -3.6034067e-04
 -5.2283757e-04
 -5.2188162e-04
 -1.6588942e-04
 -2.1325771e-04
 -8.4360102e-03
 -1.1710910e-03
  5.1197427e-04
 -2.6484270e-04
 -1.4436650e-04
 -1.1861407e-04
 -5.2008152e-05
  9.3593490e-06
  2.5677093e-05
 -3.5844889e-04
 -1.2586309e-04
 -6.5732031e-04
  4.9983260e-05
  3.9580927e-06
 -3.1824069e-04
  2.7548842e-05
 -3.1276271e-04
 -7.2072721e-01
  1.1349177e-01
  1.6037568e-01
  9.5761192e-01
  1.4941497e-01
  6.6542748e-04
  8.4505433e-01
  2.7225837e-01
  3.4254135e-04
 -7.7375034e-03
  5.2677736e-02
  7.4385248e-02
  1.5897482e-03
  1.3066502e-01
 -2.1164721e-01
  8.8041075e-02
  4.6599610e-04
 -1.5766601e-01
  4.6598296e-05
  2.1355231e-04
  1.4899014e-01
  6.4836876e-03
 -1.0737142e-01
  2.5845301e-01
 -1.8419008e-05
  8.8224348e-05
 -1.2580516e-04
  6.5664091e-04
 -1.8583660e-05
 -7.5076689e-04
 -7.7447802e-04
 -3.6077105e-04
 -7.8616856e-04
  1.2120189e-03
 -2.7844477e-05
 -1.9485071e-04
  1.8164555e-04
 -5.3545291e-04
 -2.0527428e-04
 -6.1801501e-04
  1.2115646e-04
 -3.4235170e-05
 -2.9116545e-05
 -5.0440576e-04
  2.7664957e-04
  7.4187446e-05
 -4.1782291e-04
 -1.5307445e-04
 -2.0779555e-05
 -2.2784235e-04
 -1.9417945e-05
 -3.5336998e-04
  1.4769894e-05
  3.6369523e-04
 -1.4039436e-04
 -8.2039369e-05
 -1.3898483e-03
  4.4599728e-04
  9.3257829e-04
  9.4075636e-05
 -5.9580612e-01
 -1.2490348e+00
  6.8973624e-03
 -5.5755436e-01
 -1.1041012e+00
 -7.4602664e-01
 -1.1010617e+00
  1.0752532e+00
  2.0969206e-01
 -1.5848064e+00
 -6.3569236e-01
  3.1171912e-01
 -5.2551448e-01
 -1.5832788e+00
  5.4087013e-01
 -1.3925917e+00
 -1.0575826e-01
 -8.7151408e-02
 -7.6225793e-01
 -1.2450446e+00
 -3.7961191e-01
 -1.1867151e+00
 -2.2662444e-01
 -4.0118277e-04
  1.4374208e+00
  9.7442240e-01
 -8.4058142e-01
  5.8474384e-02
  1.5955381e+00
  1.2055966e-01
  1.1360285e+00
  2.5485000e-01
 -6.1929172e-01
 -8.5889143e-01
 -1.4364027e+00
  1.0464977e+00
 -1.3591220e+00
 -1.2241504e+00
  4.9736822e-01
  1.5541384e+00
 -1.5651023e-01
 -1.8640424e+00
 -8.4632474e-01
  2.6592264e-01
 -1.0856994e+00
  1.9978036e-01
 -2.6724470e-01
 -5.3858548e-01
  1.5605595e+00
  4.8437983e-01
 -1.7162177e-01
 -4.7053087e-01
  1.5228310e-01
  4.9421653e-01
  2.9278979e-01
 -1.2955987e+00
  1.3994478e-01
  1.8532193e-01
 -2.2941477e+00
  3.9109379e-01
  2.5501978e-01
 -2.9759884e-01
 -1.6952395e+00
 -1.9924561e-04
 -7.1674085e-01
 -7.1186101e-01
 -1.1821265e+00
 -1.9626095e+00
 -4.9839827e-01
  1.0135026e-01
  1.0296160e+00
 -2.4177252e-01
 -8.1828451e-01
  1.6802119e-01
 -1.1122984e+00
 -1.7967103e-01
  3.3059999e-01
  1.4170576e+00
  1.4821900e+00
 -3.4635121e-01
  1.3768526e-04
 -3.9428804e-05
 -4.3040904e-04
  3.6586600e-05
  7.1168202e-04
 -6.2916493e-05
  5.3245727e-05
 -2.8721592e-04
  4.0867060e-04
  9.5301060e-05
 -3.9000594e-04
  9.7615412e-04
  6.1105407e-04
 -8.5876032e-05
  3.1908156e-04
  9.2461538e-05
 -6.5575572e-05
  3.4230787e-04
  1.5702577e-04
  1.2020194e-03
 -4.8583656e-04
  3.7760651e-04
 -5.1458486e-05
  1.4319256e-04
  5.6433992e-04
 -1.1597738e-03
 -4.0276962e-05
  7.4408250e-04
  1.0154475e-03
 -2.1709697e-05
  1.3592385e+00
  2.2170796e+00
 -1.4750656e-01
 -1.0046521e+00
 -2.7825838e-01
  1.1858375e+00
 -1.0953139e-01
  8.0929644e-02
  5.7565641e-01
 -7.0709956e-01
  1.7383686e-01
 -1.4447804e-02
  9.1989034e-01
 -1.0489900e+00
 -8.7875956e-01
  3.9027631e-01
 -1.4023289e-02
  1.3219371e+00
 -1.0910723e+00
 -2.9203996e-01
  4.3809491e-01
 -6.2731169e-02
  9.2028725e-01
 -5.7132202e-01
 -5.3309083e-01
  3.9524533e-04
  3.1111979e-01
 -5.2053547e-01
  1.1969867e-01
 -1.6690092e-01
 -3.5007808e-01
  1.5237257e+00
  5.6594409e-02
  4.7254909e-02
 -1.1820194e+00
  4.0055261e-04
 -1.0978819e-04
 -3.3638553e-05
 -1.5012379e-05
  1.1185741e-04
  5.3154556e-05
 -1.2892059e-05
  1.2606860e-04
  3.1248073e-05
  1.5761530e-04
  4.3580163e-05
 -1.2020251e-04
  1.2845437e-04
 -1.7090524e-04
 -2.6145147e-03
  1.6287905e-04
  3.0563280e-04
 -3.8336887e-04
  3.3135686e-04
 -3.4338454e-04
 -1.4087172e-03
  1.5807463e-04
 -1.3996572e-04
 -1.2328759e-03
 -3.7324029e-05
  9.7440004e-02
  3.6423054e-01
  4.3461315e-04
 -6.2042673e-04
  1.5339357e-01
  8.5454102e-04
 -1.6043401e-04
  1.6283005e-04
 -1.1162971e-03
 -6.7847176e-04
 -1.2222012e-04
  1.9733472e-04
 -1.2990317e-05
  8.6092514e-06
  1.8145861e-04
 -6.5686653e-04
 -2.1121604e-04
  2.5758188e-04
 -6.2152321e-06
  2.2920436e-04
  6.1669375e-04
  1.4368834e-03
 -1.8807661e-04
 -1.7763760e-04
  5.4690554e-07
 -8.8945613e-04
 -7.0661149e-04
  3.1938127e-04
 -8.1883185e-04
  2.0039160e-04
  3.2160285e-01
  1.0880207e+00
  4.0164909e-05
  2.3347040e-01
  9.4791764e-01
 -3.1459665e-01
  1.4442821e-01
  7.7611249e-04
 -7.4860251e-01
 -1.5023760e-02
 -4.1808491e-04
  1.0774519e-01
 -3.3988460e-04
  3.5002686e-02
 -7.3349595e-01
 -1.1060560e-03
 -1.0667617e-02
  2.2793259e-03
 -3.0487412e-01
 -6.2443352e-01
 -3.5004115e-01
  5.3583857e-02
  3.2969502e-01
 -3.1464279e-02
 -1.6239621e-01
 -6.4566219e-04
 -7.1966957e-04
 -2.0928783e-04
  1.7108006e-04
 -6.4073041e-02
 -7.4641770e-01
 -2.1839945e+00
 -7.3400311e-02
  2.3210192e+00
 -1.3205560e+00
 -9.4230932e-01
  3.2700089e-01
 -1.3932227e+00
  3.1877283e-02
  1.3860899e-01
 -1.9901855e-01
  2.0899585e-01
  1.3893166e-01
  3.8770419e-01
 -8.2119763e-01
 -6.8072432e-01
  8.9327516e-03
  2.2055613e-01
 -3.9707929e-01
 -7.3027802e-01
 -3.5750163e-01
  4.9327552e-01
 -3.6773631e-01
  1.3761182e+00
  1.2760981e-02
 -1.2227842e-03
 -4.7965407e-02
 -2.3138301e-01
 -2.8136134e-01
  4.3171740e-01
  1.3522483e+00
 -1.0466870e+00
  8.3023876e-01
  2.5451465e+00
  1.6295241e+00
  1.9600694e-03
 -6.6561210e-01
 -3.6532145e+00
  5.1827991e-01
  3.3718322e-03
  8.6288610e-03
  4.6698585e-01
 -1.0460126e+00
 -8.8020736e-01
  6.8927836e-01
  8.1663489e-01
 -3.3559054e-02
  3.3332512e-01
  1.2443731e+00
  3.6304584e-04
  1.6738677e-01
 -1.1397597e-02
 -1.5444516e-01
 -3.6489528e-01
 -2.2774780e-01
 -7.5165759e-04
 -2.5127205e-04
  8.8284981e-01
 -1.8924006e-04
 -2.6354987e-02
  1.7043236e+00
 -1.0471104e+00
  1.1477309e-02
 -6.1632186e-01
  9.4861865e-01
  1.8006466e-02
  8.0826712e-01
  4.5774698e-01
  1.9414254e-01
  2.4251352e-01
  6.2891877e-01
  1.6044797e+00
  4.0877275e-03
 -1.6410236e+00
 -1.2412950e+00
 -9.0786889e-02
  3.1803993e-03
 -3.7012628e-01
 -2.0021940e-02
 -1.7644362e-01
  3.8276908e-01
  1.6962124e-01
  1.5208883e+00
 -5.1292503e-01
  1.3685470e+00
  1.1377340e-01
  3.4007919e-01
  6.2580907e-01
  2.3203861e-02
  3.4108027e-04
 -2.8019977e+00
  1.0105149e+00
 -3.0946794e+00
 -1.3945332e-01
 -4.7105598e-01
  5.9302819e-01
  5.5332766e-05
 -7.1874158e-03
  1.1654755e+00
 -7.9855762e-02
 -2.0368187e-02
 -2.3536643e-01
 -6.7198509e-01
  2.3261403e-01
  2.5439638e-01
 -3.7791696e-01
 -7.4066237e-02
 -8.6164379e-01
 -2.1723097e-02
 -6.1526850e-02
  1.2417039e-04
 -1.6878188e-01
 -1.2392157e-01
 -2.9859772e-01
 -2.8994733e-02
 -5.4580078e-04
  2.8340417e-04
  2.9579366e-03
  3.5298688e-03
 -7.4773916e-04
  6.5254042e-04
  7.6106086e-02
 -1.4990795e-03
 -1.6297055e-03
  7.9859132e-03
 -4.6472103e-04
  1.8849927e-04
  1.1890345e-03
 -2.5462333e-04
 -1.1959863e-04
  2.6913450e-04
  4.7754133e-05
 -9.6323573e-05
 -4.1190552e-04
  2.3588529e-04
 -2.4480367e-04
  8.3402076e-05
 -1.1695165e-04
  5.6277939e-05
  1.7536282e-04
 -5.9761625e-04
  2.8541705e-05
  3.3351406e-04
  6.3820241e-04
  1.1775121e-04
 -5.9365795e-04
  2.7583717e-04
 -1.6295892e-04
  5.0256151e-04
 -4.6287160e-04
  3.0356081e-04
  1.3182007e-02
 -2.0482624e-04
 -3.8464350e-05
  9.3455106e-04
  7.8703568e-05
 -7.3963322e-04
 -3.7538508e-04
  9.7311212e-04
  2.2249393e-05
 -1.0468834e-03
  4.0390325e-04
  3.1255430e-04
  3.4023906e-04
  1.7933582e-03
  2.5080875e-04
  4.5773259e-04
  3.6302747e-05
 -3.5569567e-04
  3.2980830e-04
  1.7476390e-04
  4.2200551e-05
 -2.3188940e-04
  1.8533290e-04
 -9.1967708e-04
  2.4622947e-04
 -4.2210746e-04
  1.8998489e-04
 -1.5839096e-03
  3.8397053e-04
 -8.5482575e-02
 -2.8524578e-01
  1.7550857e+00
  3.8679686e-01
  8.5290723e-02
  3.0505401e-04
 -3.4959876e-04
  5.6248496e-04
  2.9556130e-04
 -2.7746073e-04
 -4.7692080e-04
  1.3056948e-04
 -1.5651716e-04
  3.5980291e-04
  1.3568462e-04
 -4.6637404e-05
 -5.2545371e-04
  4.6327885e-04
  1.7618250e-04
  1.2934676e-04
  3.3350418e-05
  3.8510445e-04
  6.8244997e-05
  4.1179932e-04
 -1.1963511e-05
  2.8743746e-04
 -6.2278807e-05
 -5.7406654e-04
 -2.7729932e-04
  1.0692605e-05
  2.1897829e-01
  1.1127833e-01
  2.4369454e-04
 -5.9620319e-03
  1.0458434e-01
  1.3550837e-04
 -3.8161081e-05
  1.3035595e-04
 -6.6678927e-05
 -6.3990046e-05
 -4.3902965e-04
 -4.9133948e-04
 -7.2257310e-05
  1.6616349e-04
  2.0307578e-04
  1.2904097e-03
  6.7583029e-04
  1.6014661e-04
  3.2514380e-04
 -7.4348092e-04
  4.6693425e-05
  1.0405009e-04
  7.1708765e-04
 -3.7113513e-04
  3.8198085e-04
  8.2424789e-04
  4.4835274e-04
  2.4484177e-04
 -1.1734942e-03
 -1.0311513e-03
  3.3582973e-01
  1.4414070e+00
 -2.8578471e-04
 -8.3658006e-04
  1.1597019e-01
 -7.8844285e-05
 -1.3082880e-04
  1.2870810e-03
  1.2993872e-04
 -6.2366212e-03
 -8.7257351e-05
  1.8918138e-03
 -1.3335896e-04
  3.2717353e-04
  2.9533691e-04
  4.1668510e-04
 -5.3158519e-04
  5.0590455e-04
  7.1213588e-05
  3.8835779e-04
 -6.7775458e-04
  9.3471463e-05
 -5.4386906e-05
  3.6651851e-04
  5.7182735e-04
  4.7604780e-04
  2.9572364e-04
  5.1635143e-05
  6.7813518e-05
  1.0061871e-04
  9.1855256e-03
  6.5017194e-01
 -6.0395591e-02
 -4.4795070e-04
  6.6714424e-01
  4.1407206e-05
  4.0372941e-04
 -9.9549845e-02
  2.6827869e-05
 -5.4261971e-05
  4.3220879e-04
  4.2892940e-02
 -6.7227527e-02
 -1.5422680e-04
  2.4425623e-04
 -2.5179416e-02
  3.1833018e-03
  2.6673121e+00
 -1.8194821e-01
  1.3238122e-04
 -9.1540476e-04
  4.4065117e-04
 -1.4793697e-04
  3.6639910e-02
  2.9038447e-01
  3.6877321e-04
  2.4141476e-03
 -7.5594108e-03
  1.1283083e-04
  1.4561764e-04
 -1.2378780e-02
 -4.2442095e-02
  4.6765775e-04
 -1.6581316e-06
 -6.9777803e-03
 -2.0898605e-04
  5.5648616e-05
 -1.2268219e-05
 -2.3341653e-04
  5.5606182e-05
  1.8790760e-04
  2.4777447e-04
 -2.0134116e-04
  2.6619679e-04
  2.8046939e-04
 -8.9122979e-05
  3.7195051e-07
 -8.3531202e-05
 -1.3441088e-04
 -2.0227288e-08
 -1.9761467e-04
  7.4376503e-04
  3.3340181e-04
  4.2589477e-04
  8.5368767e-05
 -6.8585796e-04
 -6.0862848e-03
 -1.1538556e-05
  1.1014492e-03
  2.1594809e-04
  1.2233306e+00
  5.4253173e-01
  4.6194799e-02
  9.0914178e-01
  7.6224071e-01
  1.0250197e-02
  2.6042286e-02
 -4.5827439e-01
 -1.7803979e-01
 -2.5756925e-01
  7.4045998e-01
  7.0931423e-01
 -7.5112361e-01
 -9.9726111e-01
 -1.2694515e+00
  9.0306085e-03
  3.9625192e-01
 -2.5909039e-01
 -1.2419461e+00
 -8.5703719e-01
  5.3349632e-04
 -5.2730674e-03
  3.1358752e-01
 -6.7857772e-02
 -2.1709144e-01
 -2.5495649e-03
 -1.5848609e-02
 -1.1305086e-03
 -3.2546144e-04
 -2.0532859e-03
  3.0260673e-01
 -2.0986991e+00
 -4.3003780e-01
 -6.4633089e-01
  1.9280601e+00
  4.4916901e-01
 -6.1737442e-01
  1.7196668e+00
  8.8666803e-01
 -1.7648084e-01
  1.7793947e-01
 -5.8112025e-01
  1.2709851e+00
  5.6025457e-01
 -1.7798652e-01
  2.5749413e-02
 -2.0172828e-01
  1.2831571e+00
  2.4105045e-01
  3.8483265e-01
 -1.7752975e-02
 -2.2289930e-02
 -1.6535982e-01
 -8.1303519e-01
  2.1352445e-01
  3.5619806e-02
  1.7564172e-01
  9.4951894e-05
 -3.2494877e-02
  2.7384794e-01
 -7.0263207e-01
 -2.0432828e-01
  7.9231082e-05
  1.4188447e-03
 -1.9302586e-02
 -8.5375694e-05
 -6.1538938e-04
 -5.6261220e-04
 -1.3754840e-04
 -6.6189474e-04
  5.1433861e-05
 -4.2236574e-05
  2.3507646e-04
  5.3038856e-04
  3.9233189e-04
  3.0093608e-04
 -4.8071475e-04
  9.4856706e-04
 -6.1119715e-04
 -1.6964199e-04
 -7.8875410e-06
 -5.3818116e-04
 -2.1777017e-04
  2.6032018e-07
 -3.1155511e-04
  3.7123020e-05
 -6.1199634e-04
  7.2680727e-05
 -2.9167987e-04
 -2.2731745e-05
 -1.1399612e+00
 -9.8278183e-01
 -1.5691696e-02
 -4.8991668e-01
  2.3084253e-01
  2.1574144e-04
 -1.5333667e-03
 -9.2496746e-04
  7.0356183e-02
  6.1406288e-04
  5.8442721e-04
  2.0745573e-04
  1.2654128e-03
  4.3441437e-06
 -1.2052096e-04
 -5.3104589e-04
  5.6678819e-04
 -1.2716503e-03
 -6.8690669e-04
 -8.5286098e-05
  1.4394849e-04
 -5.1255390e-04
  1.5885175e-04
  1.7059033e-04
 -2.0916958e-04
  1.6216900e-03
  1.9738766e-04
 -1.4893548e-04
 -1.3838054e-03
  1.6144848e-04
  6.0611468e-02
 -7.2848821e-01
 -6.4413436e-04
 -2.9558714e-05
  3.7291788e-02
  1.0606235e-04
 -9.8552111e-05
 -6.6266548e-05
 -8.0633086e-05
 -6.3436287e-06
  1.7258928e-04
 -6.7626563e-05
  2.8835120e-06
  1.3796097e-04
 -1.0796455e-04
  5.7393743e-04
  1.1891409e-05
  6.8134985e-05
  1.6430875e-05
  2.1218504e-03
  1.7128186e-04
 -1.7938608e-03
  4.6043682e-05
 -7.3728038e-06
  7.9231839e-05
 -9.0160494e-05
 -1.0846707e-05
 -8.8072629e-05
  7.6224701e-04
  8.8323531e-04
  5.8097267e-01
 -7.3388165e-01
  2.3296947e+00
  3.7611479e-01
  2.7740812e+00
 -2.8679782e-04
  1.1162580e-03
  1.1930774e-01
  5.4664607e-04
  7.0828822e-04
  6.7419850e-04
  4.5346045e-05
 -2.7789158e-04
 -4.8062160e-05
  6.3018908e-04
 -6.8998779e-05
  1.9380389e-04
  6.8649903e-02
 -5.4045435e-04
 -8.2015700e-04
 -5.5921025e-04
  7.0528040e-05
 -4.0277094e-04
  2.8623201e-04
  9.2349545e-04
  4.3229113e-05
 -1.0177518e-04
 -6.1235699e-04
 -1.4807437e-04
  4.8895541e-04
 -3.9729860e-01
  1.7646773e+00
 -8.2681519e-01
  3.6297554e-01
  7.5243576e-04
 -5.7284260e-01
  4.0794611e-01
  1.7622029e-02
 -9.4036806e-01
 -1.0528830e-03
  1.5265907e-02
  2.7633908e-01
  6.5534660e-03
  4.8297692e-02
  1.2048178e-01
 -8.9810537e-06
 -1.4158589e-02
  1.3074660e-01
 -9.9009745e-02
  9.5398418e-06
 -2.4060910e-03
  3.5337943e-01
  2.9525399e-01
  3.0136785e-02
 -1.3555707e-04
 -1.6260137e-03
 -1.2821335e-01
  2.3874365e-05
 -3.5224445e-04
 -1.5816424e-02
  8.3306176e-04
 -2.5859392e-01
 -1.2476997e-04
 -5.5160478e-04
  4.5329440e-02
  6.0936229e-05
  1.0394121e-05
 -4.2723777e-04
  1.8035120e-04
 -4.8169191e-04
  4.4364911e-05
  2.5686799e-04
 -4.2249009e-04
 -3.1163116e-05
 -1.6624267e-04
  5.3813687e-04
 -9.0037984e-06
  1.5747271e-04
  3.4094133e-04
  2.2859506e-04
  1.0236426e-03
  7.9564250e-04
  3.3515430e-06
  2.0574180e-04
 -3.7983415e-04
 -4.0479808e-05
  3.0516918e+00
  3.0256034e-04
  3.1178177e-04
  5.0136889e-04
  2.9416063e-01
  3.0257335e-01
 -1.4313983e-02
 -3.7087640e-04
  3.8728243e-01
 -2.3907511e-05
  9.2697289e-04
 -1.1693782e-04
  6.8004389e-05
  5.1418692e-04
  8.7523070e-04
 -2.1061351e-04
  8.5886088e-05
 -4.0458518e-04
 -3.0454146e-04
  1.1820158e-04
 -8.3405379e-05
 -1.7341700e-03
 -5.4882999e-05
 -7.5181291e-05
 -1.5499601e-04
  7.1169106e-06
  8.5033826e-05
  3.5657526e-05
 -4.7870225e-04
  8.6253031e-06
 -5.3843454e-05
 -4.0326238e-05
 -4.9563561e-04
  1.4296369e-04
 -1.2806026e-05
  4.2454988e-02
 -1.4058347e-05
 -1.4480335e-03
  2.6818016e-03
 -1.5224285e-04
 -5.3927495e-05
  1.0505226e-04
  4.2772945e-04
 -1.8180902e-04
  8.2787767e-04
  2.8913087e-04
  4.8377295e-04
 -7.1509348e-05
  6.4797627e-05
  9.2288374e-04
  1.2067426e-04
 -3.3384655e-04
 -1.2192672e-05
  4.5256063e-05
  8.5736770e-05
  9.2467770e-04
 -4.1973041e-04
  1.5869521e-04
 -2.2809430e-04
  3.6332483e-04
 -4.3940225e-05
 -7.1426992e-05
  5.7506748e-04
 -7.5462689e-05
  1.9168302e-01
  1.8609426e+00
 -2.4724855e+00
 -1.0680872e-02
 -1.1035057e-01
 -9.8414544e-04
  3.5343006e-02
  3.0528256e-04
 -6.7270425e-04
  8.3032582e-04
 -4.8721413e-04
 -3.9773950e-04
 -7.5790602e-05
  2.4333494e-04
 -4.2472655e-04
 -3.6775388e-04
  9.8026459e-05
 -1.6116310e-02
  7.9252037e-05
 -4.7613095e-04
 -1.7568558e-02
 -2.4542952e-04
 -7.1614818e-04
  5.3495163e-01
  3.8431562e-03
  1.2980957e-04
 -2.7686928e-04
 -1.1362991e-05
  2.4436886e-04
  1.8597645e-04
  1.5487248e+00
  1.9885300e+00
  1.6633899e+00
  1.4258606e+00
  7.4416637e-01
  2.9043111e-01
  4.0969321e-01
  4.4214584e-02
 -5.3159201e-01
  7.5679715e-03
  2.0268261e-01
  2.5524291e-01
  5.7178867e-01
  6.7526239e-01
  1.1534495e+00
  3.7140609e-04
  4.6841922e-01
 -7.5261015e-03
  5.8108318e-01
 -5.3669184e-01
  1.6835412e-04
  9.3820095e-03
  3.9135184e-02
  1.2719652e-01
  4.3274394e-01
  4.0489432e-04
  5.8615967e-03
  6.5225112e-04
  6.7633984e-04
 -1.0919370e-03
  5.1109755e-01
 -1.2019727e+00
 -1.4760321e+00
 -5.3936553e-01
  2.6827615e-01
  3.0914305e-02
  8.9484805e-01
  4.1816494e-04
 -3.3899903e-04
  2.5712833e-04
  2.8473689e-04
 -3.0135707e-04
  1.1189637e+00
  6.9943613e-01
 -1.2776265e-01
  4.1799003e-04
 -8.5609514e-01
 -2.3924924e-05
  2.4272322e-04
  2.7463789e-04
 -1.0488052e-04
 -1.0916332e-03
  1.8957242e-02
 -2.2616812e-04
 -7.5152778e-04
  1.5180187e-04
  4.1134434e-05
  3.8052385e-04
 -7.4040156e-04
 -3.8808252e-04
 -2.2211218e+00
 -1.6466138e+00
  1.6847235e+00
 -1.3691678e+00
 -2.7715531e-01
  1.5039665e+00
 -2.6034966e+00
 -3.1344271e-01
  1.3377380e+00
 -5.8585755e-04
  4.0135171e-02
 -2.9937702e-01
  5.9086108e-01
 -6.5535372e-01
 -7.4969091e-02
  9.1225514e-03
 -6.8211383e-01
 -4.6991357e-01
  1.1281440e-01
 -4.7697913e-02
  9.4484395e-01
 -9.7279614e-01
 -3.5422735e-02
 -1.2491351e+00
 -1.8933399e-01
 -2.2398530e-02
  4.1685719e-04
  5.9663813e-04
 -1.3693984e-04
 -1.2847564e-01
  8.8968408e-01
  1.0052655e+00
  6.0675621e-01
 -1.2814257e-01
  3.9813539e-01
  6.1988120e-04
 -1.5141048e-04
  2.6919302e-01
 -1.8794199e-04
 -1.6639744e-04
  8.5946685e-04
  1.3095430e-05
  1.0651562e-01
 -4.4549842e-04
  1.4565968e-04
 -2.7762153e-04
 -1.2262975e-04
 -1.2055899e-04
  5.5419293e-04
  3.7613651e-04
 -2.2929897e-04
 -1.7138719e-04
  4.3058969e-04
  4.0870756e-04
 -2.8919708e-04
  2.7843587e-05
 -2.9393367e-04
 -5.9665457e-05
  6.5560394e-05
  8.6192240e-06
 -1.0398990e+00
  9.4457823e-01
  3.5680676e-01
 -3.6261946e-01
 -2.5613075e-01
 -7.4470438e-05
 -9.0264463e-01
 -2.9042420e-01
 -1.1102587e-03
 -6.4312771e-04
 -1.2179120e-03
  4.0355363e-04
 -6.3046074e-01
 -1.0755492e+00
  7.0150681e-03
 -1.0731268e-01
  9.5891260e-02
  7.0563835e-01
  2.6059474e-04
  3.3974382e-05
  1.5946179e-04
  6.0518652e-01
 -3.4409448e-05
 -1.6088890e-03
  1.7247862e-01
 -1.7083697e-05
 -4.1003237e-04
 -3.1975011e-05
 -1.1736656e-04
 -6.2337861e-04
  3.4957477e-06
 -3.0435645e-04
  3.2724955e-05
  1.4447116e-03
 -1.4696805e-01
 -2.2828096e-04
  1.8981533e-04
 -6.2711647e-04
  5.1889685e-04
 -6.1584386e-04
  1.5750994e-04
 -1.1754341e-03
 -3.6290471e-04
  6.4776068e-05
 -1.8056609e-04
 -9.6044176e-05
 -3.0535797e-04
  1.8891170e-04
  8.3596056e-04
 -2.6726950e-04
  2.2333728e-04
  3.0087293e-04
 -2.2641559e-04
 -2.4832133e-04
 -4.9715018e-05
 -1.8510404e-04
  4.7329170e-04
 -6.4340245e-05
  5.9427839e-04
 -1.0095339e-03
  2.0538044e+00
  1.2374007e+00
 -2.4803891e+00
 -1.3382370e+00
  5.0107792e-02
  9.0392772e-04
 -2.4411934e-03
 -4.9209058e-01
 -1.0306102e-04
 -3.2354572e-03
  1.5973942e-02
 -4.1738505e-05
 -6.5935008e-02
 -1.4903749e-04
  5.8556315e-02
 -2.6158744e-04
  2.6418811e-03
 -1.2855766e+00
 -1.3773309e-01
 -1.6738389e-01
  2.6234135e-03
  6.0072343e-04
  5.8495007e-02
 -8.3619170e-06
 -1.0341877e-04
  1.1320877e-03
  3.1553637e-03
  3.1255397e-05
  4.4768286e-04
  5.1117371e-05
  1.5536670e-01
 -6.4987272e-01
 -3.9944411e-03
 -1.2859792e-01
  1.0038291e+00
 -7.3256699e-05
  9.5111417e-04
 -6.2966341e-04
 -6.4064946e-04
  5.6590373e-04
  2.0223412e-04
 -2.8255849e-05
  4.4360754e-04
 -2.9557408e-04
 -1.9703922e-04
 -5.7939880e-05
 -3.2875399e-04
  8.7897555e-05
  2.0352559e-04
  1.7924915e-04
  3.1071383e-04
 -3.5609791e-04
  5.7883270e-04
  4.0633589e-04
  2.5152124e-04
 -1.4450253e-03
 -1.6825771e-04
  9.4624753e-05
  2.9728605e-04
  1.6282841e-04
  2.3983842e-01
 -2.9334096e-02
 -1.0565113e-02
 -4.4508886e-01
  2.7283433e-01
  1.8002160e-03
  7.0019963e-04
  1.9012657e-01
  6.2502190e-02
  7.6159532e-04
  9.9932880e-04
  1.8381528e-03
 -1.1287005e-04
  3.6108261e-01
 -9.1390451e-05
  2.5824746e-04
  3.1741804e-03
  9.0394843e-01
  4.7583241e-02
 -1.0479717e-04
  4.0766443e-03
  3.2486555e-01
  1.0278130e+00
  2.0593877e-01
  8.3433988e-04
  7.0178742e-04
  1.1578075e-03
  1.1511296e-03
  9.9787569e-05
  2.4058830e-04
 -1.6990414e-02
  2.9980211e-02
  7.5550395e-01
 -8.5845947e-01
 -1.5955442e+00
  1.7843081e-03
 -2.9591853e-05
  1.4349379e-01
  6.4741686e-04
  7.1348361e-04
  5.3594530e-01
  3.2763869e-01
 -1.4749524e-04
 -1.0824497e-04
 -3.3394850e-04
  1.1292265e-03
  1.1892596e-04
  2.1268241e-02
  1.1293467e-04
 -2.0683938e-04
  2.4456733e-05
 -5.8644579e-05
  1.9027744e-03
  4.3570777e-05
  3.5236135e-05
  5.6127086e-05
  2.0220927e-03
  3.0334332e-04
  4.6347693e-04
 -2.5146757e-04
  1.6837433e-01
 -1.2053345e+00
  1.0365881e+00
 -2.3562291e-01
  5.8786517e-01
  1.5206308e-03
 -5.3662586e-04
  3.8386068e-01
  2.7305448e-01
 -2.0588620e-04
 -8.8828579e-05
 -8.4130272e-02
  6.6118985e-02
 -2.3285250e-04
 -5.4287125e-04
 -7.6160140e-02
  2.4242638e-04
 -4.0501526e-01
 -6.9693806e-06
  5.4264994e-04
 -6.0365186e-04
  1.1848576e-03
  8.5993779e-01
  1.1819877e-01
  9.2432208e-02
  1.9331052e-05
  6.0622313e-04
  6.1612282e-06
  1.6059552e-04
  5.0029659e-04
 -9.5409453e-02
  1.6538978e+00
 -9.5273238e-01
 -2.1111426e-01
 -1.4752548e+00
 -1.1534916e-01
 -3.0211136e-03
 -3.3853468e-01
  2.2872651e-01
  2.6514465e-01
 -5.2019157e-05
  8.1366964e-02
  1.8207657e+00
  5.1283795e-01
  9.8128068e-01
  1.1401794e+00
  1.2646687e-01
  1.0937914e+00
  5.2573420e-02
  1.5895009e-01
  1.2011710e-04
 -8.3027309e-01
 -4.1432288e-01
  9.5716745e-02
  1.5217843e-02
  2.0450663e-02
  3.3677503e-04
  2.1954680e-04
  1.8296875e-04
 -2.0484977e-04
  7.2872669e-01
  2.9193154e-01
 -1.5533964e-02
 -2.3610033e-03
  3.0980710e-02
 -3.4381017e-05
  9.3940165e-05
  1.5918307e-05
 -5.7503034e-04
  2.2992305e-03
  1.1199451e-03
  1.3009469e-04
  4.3879831e-03
  1.2212385e-04
 -7.0864841e-04
  3.5499019e-05
  1.0329133e-03
  5.3100270e-04
 -1.8259097e-05
 -1.9271908e-04
 -1.0089501e-04
  9.0892788e-04
 -1.1694735e-04
  2.8836692e-05
  4.7516273e-04
  3.2623424e-04
  2.6566596e-04
  8.6253247e-05
  2.0046673e-04
  2.5403596e-04
  5.4535412e-05
  2.1991646e+00
  1.1215386e+00
 -1.0946254e+00
 -4.3467411e-01
 -2.5201843e+00
  2.3675115e-01
  8.6547887e-01
  1.1206430e+00
 -9.4682372e-01
 -1.4702125e+00
  1.9803640e-01
 -4.6373177e-01
  9.5846558e-01
  9.2623329e-01
  1.8403498e+00
  1.5847323e-02
 -3.5493550e-01
  7.1653420e-01
 -1.7319093e-02
 -1.4437047e-01
  4.7091132e-01
 -3.2679760e-01
 -1.3540763e+00
 -1.1767837e-01
 -1.5949510e+00
  8.5690182e-01
  2.1694670e+00
 -9.3293351e-01
 -1.7126895e+00
  8.9641064e-01
  1.0909683e+00
  1.5337766e+00
  2.2553000e+00
 -1.0806618e+00
  7.6074052e-01
 -1.5515761e+00
  2.1923323e-01
  1.2438093e+00
 -3.2371050e-01
 -8.0101832e-05
  1.7913980e+00
 -2.9973656e-01
  3.6473513e-01
 -3.0463471e+00
 -1.5369049e+00
 -9.8602641e-01
  1.3314081e+00
 -2.2916996e+00
  4.3188858e-01
  2.8784245e-01
 -3.6427367e-01
  3.0956313e-01
  1.1207434e-01
  3.6148050e-01
 -7.0559794e-01
 -1.3582323e+00
  1.2246747e+00
 -2.5251657e-01
  6.6654783e-01
  1.6208027e-01
  2.9498971e-01
 -2.5984371e+00
  2.7835053e-01
  2.8553534e-01
  5.1176864e-01
  4.0185121e-01
  1.2319194e+00
  1.0439804e+00
 -8.4312266e-01
  3.3870363e-01
 -8.6589372e-01
 -2.9861256e-01
  7.2570503e-01
  4.2393982e-01
  9.9081844e-01
  4.2233080e-01
  8.0468774e-01
  1.0756707e+00
  2.4601270e-01
 -3.8529022e+00
  1.7677429e+00
  1.3202778e-02
  2.0383980e+00
 -1.1694379e+00
 -7.4522384e-03
 -6.4257131e-04
  1.2177029e+00
  9.0484160e-01
  4.7823370e-01
 -5.7181768e-04
  2.6667333e-01
  1.7133616e+00
  1.9334174e+00
  4.9072963e-01
  2.5545578e+00
  2.2182703e+00
  2.4930935e-01
  7.8780195e-03
 -8.1754690e-01
  7.5388259e-01
 -2.6866727e-04
 -8.7425010e-03
  9.8193495e-04
  1.4374253e-01
  5.1284290e-04
  2.6985103e-01
 -3.7567690e-01
 -2.9371110e-01
  3.6894158e-01
  8.5239403e-02
 -1.6233282e+00
 -1.1299102e+00
  1.0494979e-01
 -3.1448814e-01
  1.1922907e+00
 -4.2237654e-01
  1.1393585e+00
  6.3355125e-02
  1.6674031e+00
  1.4424560e+00
  5.8449626e-01
  6.6697210e-01
 -2.3929808e-01
  3.3379703e+00
  5.3927535e-01
  5.0665510e-01
 -1.4815805e+00
 -1.0356112e-01
  7.5019538e-01
  1.2128743e+00
  7.8050435e-01
  1.3146338e-01
  5.7236606e-01
 -1.0902506e+00
  2.1004190e+00
  6.6266340e-01
  3.7424621e-01
 -4.6388793e-01
  1.0595347e-01
  1.7552820e+00
  3.4212235e-01
  3.5917559e-01
  3.0458018e-01
 -1.6295898e+00
 -1.8776658e+00
  1.4920123e-01
  2.6107087e+00
  3.4445271e-01
  8.3588459e-02
  6.7020422e-01
  9.2068762e-01
 -5.8511317e-01
 -3.2539792e-02
  1.2468576e-01
 -9.9643417e-02
 -3.4630391e-01
 -7.1208799e-01
 -6.0940140e-01
  4.5307267e-01
  2.5168502e-01
  7.7248055e-01
  1.5162127e-01
  1.3141877e-02
  3.2117538e+00
  2.2598734e+00
  1.0476639e+00
 -2.3683012e+00
  1.2992172e+00
 -1.2898454e-01
  1.3121729e-01
 -1.2163932e+00
  2.3211673e-01
 -6.7003345e-01
 -2.2471480e+00
  1.3794566e+00
  1.5872946e+00
  1.3296597e+00
  5.7167321e-01
 -4.2017701e-01
  1.0948431e+00
  1.6785021e+00
  1.1904277e+00
 -1.0445778e-01
  1.7367859e-01
 -1.5991098e+00
  2.5947204e-01
 -8.7981617e-01
  5.9269464e-01
  5.1850296e-04
  6.9241691e-04
 -5.0851573e-05
 -1.7648008e-02
 -1.6669405e-01
 -1.0889735e-03
 -2.7597215e-04
  1.7996018e-01
  1.9323393e+00
 -8.0322266e-01
 -2.4239038e-01
 -1.2943733e+00
  1.7807060e-01
  1.6022932e-02
 -2.0171311e+00
 -2.1030262e+00
  1.3210791e-01
  3.4076256e-01
 -4.8743436e-01
  5.7805644e-04
 -3.9724132e-01
 -1.3771610e-02
  2.0071934e-04
  4.6321502e-01
  6.6259497e-01
  1.7851789e+00
 -2.6941273e-01
 -4.8034376e-01
  6.1087366e-02
  4.0985957e-02
 -6.4156854e-01
  3.0927882e-01
 -2.9137483e+00
  1.8959957e-03
  8.1814118e-02
 -1.6975715e+00
  6.3005131e-01
 -7.1243907e-04
 -3.0071603e-03
  1.1197951e+00
  4.0182999e-01
  3.2539621e-02
 -1.4010533e+00
  2.4986945e-01
  5.2817607e-01
  7.6473504e-02
  2.7406797e-02
 -1.1131325e+00
  2.5948746e+00
 -1.2395374e+00
  1.8908210e+00
 -2.5344899e+00
 -4.3775636e-01
 -6.5528506e-01
  8.5093208e-02
 -1.0724144e+00
 -4.4457644e-02
 -6.5980923e-01
 -1.0815077e-01
  1.8950303e+00
 -1.0537348e+00
  1.3819294e-01
  1.7669768e+00
  1.6747490e-01
 -1.0501124e+00
 -2.3340850e+00
  2.8196236e-01
 -7.9455429e-01
 -1.3258238e+00
 -7.1227002e-01
  5.9590828e-01
  6.0032797e-01
 -3.1939182e+00
 -3.3604562e+00
  2.3266979e-01
  6.5542823e-01
 -2.2017484e+00
 -1.7434733e+00
  1.2335490e+00
  1.2396770e+00
 -8.4357524e-01
 -6.9808972e-01
 -1.9184219e+00
 -5.5169588e-01
 -1.5801667e-01
 -3.9534193e-01
  1.5705320e-01
 -1.2875714e+00
 -2.0021199e-01
 -8.7797546e-01
  3.2324150e-01
  7.3714167e-01
 -1.2529765e+00
 -1.5508949e+00
  4.2035222e+00
  4.4351751e-01
 -9.0001732e-01
 -4.7227655e-02
  1.0366129e+00
  9.0978998e-01
  5.6167597e-01
  1.4423081e-01
  1.8166749e+00
  2.1958533e-01
  1.1330613e-01
  6.0604193e-04
  1.1966219e-04
  2.8653300e-01
  3.5573295e-05
  2.0383731e-03
  5.4175727e-02
 -1.0662816e+00
  4.4365849e-02
  1.5281383e-02
 -3.9674273e-05
  5.4258001e-01
  2.8124186e-01
  5.6491920e-04
 -1.1947535e+00
  4.1667647e+00
  1.7830671e-04
  1.3154107e-01
  1.1383781e-01
  5.8959520e-01
 -5.2300274e-01
  7.2108407e-04
 -7.9020858e-02
  1.5568768e+00
  3.0894613e-02
  1.8317944e-04
  8.6334981e-02
  3.2487422e-01
  1.9452373e-03
 -8.8748260e-05
  9.0307772e-01
  5.5412002e-02
  3.3330690e-02
  3.8116111e-04
  8.1568933e-06
  2.9353008e+00
 -1.9715357e-01
 -2.0453637e-04
 -1.2677578e+00
  9.3252391e-02
  1.4127463e-01
  1.7778134e-02
  1.0481786e-01
 -5.0332636e-01
  3.1572495e-02
  9.0400547e-02
 -3.1982139e-02
 -4.2891327e-01
  2.0525837e+00
  5.5127323e-01
  6.4493662e-01
  1.1413696e+00
  4.1742483e-01
 -1.5711460e-04
 -5.6019360e-01
 -5.7489544e-02
 -1.9042817e+00
 -2.6759999e-06
  5.5668777e-01
  1.7383002e+00
 -1.7333473e+00
  7.3979998e-01
 -1.5021743e-01
 -9.6806443e-01
  6.1111128e-01
  1.1334009e-01
  7.4261107e-02
 -8.4989840e-01
 -1.6156943e+00
 -5.0274289e-01
  2.9110094e-03
  2.6840315e+00
 -2.8643446e-02
  5.4928327e-01
  9.3505107e-02
  9.6107972e-01
  4.7773445e-01
 -1.5727125e-01
 -4.3929018e-02
 -2.0734866e-01
  1.1218947e+00
 -2.5234780e-01
  9.5675820e-01
 -1.3199927e+00
 -5.8649957e-01
 -7.6665390e-01
  8.8196200e-01
 -2.1682161e-01
  5.4407692e-01
 -3.4048948e-01
  3.2516119e-01
  3.4051467e-02
  9.5218003e-01
 -1.4674529e-01
  2.5603208e-01
 -9.4573118e-02
  1.4712641e+00
  1.2576136e-01
  3.7238735e-04
  3.8157561e-01
 -8.3477348e-01
  1.8991671e+00
  1.9398971e-01
  1.9523524e+00
 -9.5819318e-01
 -1.7747959e-02
 -4.0713277e-01
 -4.1530433e+00
  1.4860260e+00
  1.0338868e+00
  3.3792499e-02
 -4.9566823e-01
 -2.5423639e+00
 -7.5387079e-01
 -4.7003365e-01
  6.7687941e-01
 -2.0582311e+00
 -2.5852802e+00
  9.6717471e-01
 -3.0852308e+00
  1.8336608e+00
 -8.8724256e-02
  1.6951560e+00
 -1.3041680e+00
  1.1424273e+00
  1.3607787e+00
 -2.5841790e-01
 -3.2155442e+00
 -4.7345692e-01
  7.3256612e-01
 -9.2904723e-01
 -5.7797801e-01
 -1.0365457e-04
  5.6293409e-02
 -2.2984366e-01
 -5.8433380e-02
  7.9939336e-01
 -3.9016482e-01
  5.9223838e-02
  1.3293958e+00
  1.3054556e+00
 -3.8988554e-01
 -1.3414913e+00
  5.4994535e-01
  1.0471773e+00
 -8.1627440e-01
 -1.6934397e+00
  1.2703675e-01
  8.4698737e-01
 -4.8597553e-01
 -8.9593917e-01
 -2.5846019e-01
  1.0680823e-01
  6.6664290e-01
  3.4436095e-01
 -4.5767695e-01
 -6.3246538e-05
  5.5617136e-05
 -7.4509881e-02
 -1.3839573e+00
  5.5435173e-02
  5.8658540e-01
 -2.7213272e-01
  8.5038579e-01
  9.8526841e-01
  5.9562918e-02
  1.4599375e+00
 -2.5517336e-01
  4.8562210e-02
 -2.4452857e-03
  7.8857797e-01
 -4.7891387e-01
  1.2821120e+00
  2.1087179e+00
 -1.5336257e+00
  7.2528940e-01
  1.4118162e+00
  2.2860454e-01
 -1.3450879e+00
  7.9709029e-01
  5.0226945e-01
 -1.1928638e+00
  2.1889983e-01
 -8.8849866e-01
 -8.7569213e-01
 -5.5471832e-01
  1.2313274e-01
 -1.4010084e+00
  7.8480560e-01
  8.7011158e-01
 -8.1538069e-01
 -5.4301602e-01
  7.8066480e-01
 -4.8939191e-02
 -3.1943214e-01
  8.5001886e-02
  6.4371419e-03
 -4.8919341e-01
  3.8832095e-01
  1.6137275e-01
 -2.7413502e-01
  2.1706031e-01
  3.3870062e-01
  3.9637685e-02
  2.4637988e+00
 -2.3594769e-02
 -2.8479939e-02
 -5.4328042e-01
  1.8013269e+00
 -1.0668255e-01
  9.4768949e-02
 -1.1062224e+00
 -2.0681873e-04
  8.7303942e-01
  5.7905704e-01
  3.7027731e+00
 -1.8046270e-01
 -8.3768362e-01
  3.8426128e-01
 -6.5496236e-01
  8.6228490e-01
 -7.9090130e-01
  1.5089696e-02
 -3.3678377e-01
  6.7938721e-01
  7.8778666e-01
 -2.9759955e+00
 -1.4512930e+00
 -2.6660533e+00
  4.1378401e-03
 -1.1168606e+00
 -7.5479722e-01
 -7.4404824e-01
 -1.0005602e+00
  8.5220921e-01
 -1.4954117e-01
  2.4556608e-01
  5.7681465e-01
  3.9130905e-01
 -6.4086592e-01
 -5.5344939e-01
 -5.4760236e-01
 -1.4140619e+00
 -1.5713924e-01
 -1.1892684e+00
 -5.3838575e-01
 -5.0140786e-01
 -2.2519130e-02
 -6.9390130e-01
 -3.6148140e-01
  7.2350466e-01
  5.3673834e-02
 -8.3483845e-02
  1.9898000e-01
  6.3263881e-01
 -1.9803420e-03
  1.0138203e+00
  2.2064871e-01
  9.6295953e-01
 -1.3978784e+00
  7.2117778e-04
 -1.5583605e-03
 -6.7782331e-01
  1.1426980e+00
 -3.3214614e-01
  3.8060406e-04
  1.9946145e+00
  2.0147362e+00
  7.4467874e-01
 -6.1018676e-01
  1.0854410e+00
  4.6403836e-02
 -2.8922915e-04
  3.5199523e-03
 -2.8341146e+00
 -2.1168890e+00
 -5.0879788e-01
  1.8556150e-04
 -1.3996278e+00
  9.0706611e-01
  1.2859979e+00
 -2.1311778e-01
 -3.0319982e+00
  1.7672954e+00
 -4.0523916e-01
  2.1940951e-01
 -1.3325229e-01
  3.8210493e-01
 -9.9615052e-02
 -5.7919412e-03
  4.5385164e-01
 -1.1237555e+00
  1.6539787e-01
  8.5951072e-01
 -3.1395203e-01
 -5.5611742e-01
  1.6820218e-01
 -2.0378084e-01
 -5.4817969e-01
  4.3080837e-01
 -1.6958880e-01
  4.7241578e-01
  4.1972411e-01
  6.5714872e-01
  3.5240568e-02
  2.2485694e-01
  1.0575914e+00
  1.9632053e-01
  3.7387968e-03
  3.7387968e-03
  3.7387968e-03
  3.7387968e-03
  3.7387968e-03
  4.6107750e-02
  4.6107750e-02
  4.6107750e-02
  4.6107750e-02
  4.6107750e-02
  4.3848600e-02
  4.3848600e-02
  4.3848600e-02
  4.3848600e-02
  4.3848600e-02
  3.0659672e-02
  3.0659672e-02
  3.0659672e-02
  3.0659672e-02
  3.0659672e-02
  1.5039166e-02
  1.5039166e-02
  1.5039166e-02
  1.5039166e-02
  1.5039166e-02
  3.0165588e-02
  3.0165588e-02
  3.0165588e-02
  3.0165588e-02
  3.0165588e-02
